{
  "W1": [
    [
      0.1845842052579056,
      0.20626505373762358,
      0.3492770599196519,
      -0.13062763635195304,
      0.17656338676714245
    ],
    [
      0.2155304146256158,
      0.213283761905362,
      0.06308501189476437,
      -0.10247647943289645,
      -0.11954630445078089
    ],
    [
      1.3033504655208132,
      -1.0013089135001991,
      -0.7225630385759834,
      0.04468017066801853,
      -0.05451889810138718
    ],
    [
      0.009229886287328262,
      0.14926940167788594,
      0.03540098392610282,
      -0.06384145855459337,
      -0.06760351942797507
    ]
  ],
  "b1": [
    [
      -0.09828115535301697,
      0.6754263766446047,
      0.45700257112694376,
      -0.0009416158764006332,
      -0.026441723199322892
    ]
  ],
  "W_class": [
    [
      0.0037142965870670223,
      0.060451258602049036,
      -0.11552515853933693
    ],
    [
      0.1070859890608026,
      0.07814965974144698,
      0.05841941041045198
    ],
    [
      -0.3347449216072325,
      -0.03959773617049501,
      0.1013509402041581
    ],
    [
      -0.004609151507559317,
      2.1664975461552354e-05,
      -0.010728459979194154
    ],
    [
      0.0010256674417284135,
      0.08208746328691899,
      -0.15689640002243557
    ]
  ],
  "b_class": [
    [
      0.07024189164476025,
      -0.12358163097876174,
      0.05333973933400123
    ]
  ],
  "W_reg": [
    [
      -1.3194202616107238
    ],
    [
      1.2816266404793146
    ],
    [
      0.8862692408680063
    ],
    [
      -0.003433352809452307
    ],
    [
      0.07656457028458649
    ]
  ],
  "b_reg": [
    [
      0.10842803207589286
    ]
  ]
}